digraph Tree {
node [shape=box] ;
0 [label="Sex=female <= 0.5\ngini = 0.473\nsamples = 891\nvalue = [549, 342]"] ;
1 [label="Age <= 6.5\ngini = 0.306\nsamples = 577\nvalue = [468, 109]"] ;
0 -> 1 [labeldistance=2.5, labelangle=45, headlabel="True"] ;
2 [label="Pclass <= 2.5\ngini = 0.444\nsamples = 24\nvalue = [8, 16]"] ;
1 -> 2 ;
3 [label="gini = 0.0\nsamples = 10\nvalue = [0, 10]"] ;
2 -> 3 ;
4 [label="Age <= 0.71\ngini = 0.49\nsamples = 14\nvalue = [8, 6]"] ;
2 -> 4 ;
5 [label="gini = 0.0\nsamples = 1\nvalue = [0, 1]"] ;
4 -> 5 ;
6 [label="Age <= 2.5\ngini = 0.473\nsamples = 13\nvalue = [8, 5]"] ;
4 -> 6 ;
7 [label="Age <= 1.5\ngini = 0.278\nsamples = 6\nvalue = [5, 1]"] ;
6 -> 7 ;
8 [label="gini = 0.444\nsamples = 3\nvalue = [2, 1]"] ;
7 -> 8 ;
9 [label="gini = 0.0\nsamples = 3\nvalue = [3, 0]"] ;
7 -> 9 ;
10 [label="Age <= 3.5\ngini = 0.49\nsamples = 7\nvalue = [3, 4]"] ;
6 -> 10 ;
11 [label="gini = 0.0\nsamples = 2\nvalue = [0, 2]"] ;
10 -> 11 ;
12 [label="Age <= 5.0\ngini = 0.48\nsamples = 5\nvalue = [3, 2]"] ;
10 -> 12 ;
13 [label="gini = 0.375\nsamples = 4\nvalue = [3, 1]"] ;
12 -> 13 ;
14 [label="gini = 0.0\nsamples = 1\nvalue = [0, 1]"] ;
12 -> 14 ;
15 [label="Pclass <= 1.5\ngini = 0.28\nsamples = 553\nvalue = [460, 93]"] ;
1 -> 15 ;
16 [label="Age <= 53.0\ngini = 0.46\nsamples = 120\nvalue = [77, 43]"] ;
15 -> 16 ;
17 [label="Age <= 17.5\ngini = 0.483\nsamples = 98\nvalue = [58, 40]"] ;
16 -> 17 ;
18 [label="gini = 0.0\nsamples = 2\nvalue = [0, 2]"] ;
17 -> 18 ;
19 [label="Age <= 22.5\ngini = 0.478\nsamples = 96\nvalue = [58, 38]"] ;
17 -> 19 ;
20 [label="gini = 0.0\nsamples = 5\nvalue = [5, 0]"] ;
19 -> 20 ;
21 [label="Age <= 27.5\ngini = 0.486\nsamples = 91\nvalue = [53, 38]"] ;
19 -> 21 ;
22 [label="Age <= 24.5\ngini = 0.42\nsamples = 10\nvalue = [3, 7]"] ;
21 -> 22 ;
23 [label="Age <= 23.5\ngini = 0.444\nsamples = 3\nvalue = [2, 1]"] ;
22 -> 23 ;
24 [label="gini = 0.0\nsamples = 1\nvalue = [0, 1]"] ;
23 -> 24 ;
25 [label="gini = 0.0\nsamples = 2\nvalue = [2, 0]"] ;
23 -> 25 ;
26 [label="Age <= 26.5\ngini = 0.245\nsamples = 7\nvalue = [1, 6]"] ;
22 -> 26 ;
27 [label="gini = 0.0\nsamples = 3\nvalue = [0, 3]"] ;
26 -> 27 ;
28 [label="gini = 0.375\nsamples = 4\nvalue = [1, 3]"] ;
26 -> 28 ;
29 [label="Age <= 47.5\ngini = 0.472\nsamples = 81\nvalue = [50, 31]"] ;
21 -> 29 ;
30 [label="Age <= 43.0\ngini = 0.448\nsamples = 68\nvalue = [45, 23]"] ;
29 -> 30 ;
31 [label="Age <= 31.5\ngini = 0.477\nsamples = 56\nvalue = [34, 22]"] ;
30 -> 31 ;
32 [label="Age <= 28.5\ngini = 0.383\nsamples = 31\nvalue = [23, 8]"] ;
31 -> 32 ;
33 [label="gini = 0.5\nsamples = 4\nvalue = [2, 2]"] ;
32 -> 33 ;
34 [label="Age <= 29.35\ngini = 0.346\nsamples = 27\nvalue = [21, 6]"] ;
32 -> 34 ;
35 [label="gini = 0.0\nsamples = 2\nvalue = [2, 0]"] ;
34 -> 35 ;
36 [label="Age <= 30.5\ngini = 0.365\nsamples = 25\nvalue = [19, 6]"] ;
34 -> 36 ;
37 [label="Age <= 29.85\ngini = 0.351\nsamples = 22\nvalue = [17, 5]"] ;
36 -> 37 ;
38 [label="gini = 0.363\nsamples = 21\nvalue = [16, 5]"] ;
37 -> 38 ;
39 [label="gini = 0.0\nsamples = 1\nvalue = [1, 0]"] ;
37 -> 39 ;
40 [label="gini = 0.444\nsamples = 3\nvalue = [2, 1]"] ;
36 -> 40 ;
41 [label="Age <= 36.5\ngini = 0.493\nsamples = 25\nvalue = [11, 14]"] ;
31 -> 41 ;
42 [label="Age <= 33.5\ngini = 0.375\nsamples = 12\nvalue = [3, 9]"] ;
41 -> 42 ;
43 [label="Age <= 32.5\ngini = 0.5\nsamples = 2\nvalue = [1, 1]"] ;
42 -> 43 ;
44 [label="gini = 0.0\nsamples = 1\nvalue = [0, 1]"] ;
43 -> 44 ;
45 [label="gini = 0.0\nsamples = 1\nvalue = [1, 0]"] ;
43 -> 45 ;
46 [label="Age <= 35.5\ngini = 0.32\nsamples = 10\nvalue = [2, 8]"] ;
42 -> 46 ;
47 [label="gini = 0.0\nsamples = 4\nvalue = [0, 4]"] ;
46 -> 47 ;
48 [label="gini = 0.444\nsamples = 6\nvalue = [2, 4]"] ;
46 -> 48 ;
49 [label="Age <= 41.0\ngini = 0.473\nsamples = 13\nvalue = [8, 5]"] ;
41 -> 49 ;
50 [label="Age <= 38.5\ngini = 0.42\nsamples = 10\nvalue = [7, 3]"] ;
49 -> 50 ;
51 [label="Age <= 37.5\ngini = 0.444\nsamples = 6\nvalue = [4, 2]"] ;
50 -> 51 ;
52 [label="gini = 0.444\nsamples = 3\nvalue = [2, 1]"] ;
51 -> 52 ;
53 [label="gini = 0.444\nsamples = 3\nvalue = [2, 1]"] ;
51 -> 53 ;
54 [label="Age <= 39.5\ngini = 0.375\nsamples = 4\nvalue = [3, 1]"] ;
50 -> 54 ;
55 [label="gini = 0.0\nsamples = 1\nvalue = [1, 0]"] ;
54 -> 55 ;
56 [label="gini = 0.444\nsamples = 3\nvalue = [2, 1]"] ;
54 -> 56 ;
57 [label="gini = 0.444\nsamples = 3\nvalue = [1, 2]"] ;
49 -> 57 ;
58 [label="Age <= 45.25\ngini = 0.153\nsamples = 12\nvalue = [11, 1]"] ;
30 -> 58 ;
59 [label="Age <= 44.5\ngini = 0.32\nsamples = 5\nvalue = [4, 1]"] ;
58 -> 59 ;
60 [label="gini = 0.0\nsamples = 1\nvalue = [1, 0]"] ;
59 -> 60 ;
61 [label="gini = 0.375\nsamples = 4\nvalue = [3, 1]"] ;
59 -> 61 ;
62 [label="gini = 0.0\nsamples = 7\nvalue = [7, 0]"] ;
58 -> 62 ;
63 [label="Age <= 48.5\ngini = 0.473\nsamples = 13\nvalue = [5, 8]"] ;
29 -> 63 ;
64 [label="gini = 0.0\nsamples = 3\nvalue = [0, 3]"] ;
63 -> 64 ;
65 [label="Age <= 49.5\ngini = 0.5\nsamples = 10\nvalue = [5, 5]"] ;
63 -> 65 ;
66 [label="gini = 0.444\nsamples = 3\nvalue = [1, 2]"] ;
65 -> 66 ;
67 [label="Age <= 50.5\ngini = 0.49\nsamples = 7\nvalue = [4, 3]"] ;
65 -> 67 ;
68 [label="gini = 0.444\nsamples = 3\nvalue = [2, 1]"] ;
67 -> 68 ;
69 [label="Age <= 51.5\ngini = 0.5\nsamples = 4\nvalue = [2, 2]"] ;
67 -> 69 ;
70 [label="gini = 0.5\nsamples = 2\nvalue = [1, 1]"] ;
69 -> 70 ;
71 [label="gini = 0.5\nsamples = 2\nvalue = [1, 1]"] ;
69 -> 71 ;
72 [label="Age <= 75.5\ngini = 0.236\nsamples = 22\nvalue = [19, 3]"] ;
16 -> 72 ;
73 [label="Age <= 60.5\ngini = 0.172\nsamples = 21\nvalue = [19, 2]"] ;
72 -> 73 ;
74 [label="Age <= 59.0\ngini = 0.32\nsamples = 10\nvalue = [8, 2]"] ;
73 -> 74 ;
75 [label="Age <= 55.5\ngini = 0.219\nsamples = 8\nvalue = [7, 1]"] ;
74 -> 75 ;
76 [label="gini = 0.0\nsamples = 3\nvalue = [3, 0]"] ;
75 -> 76 ;
77 [label="Age <= 57.0\ngini = 0.32\nsamples = 5\nvalue = [4, 1]"] ;
75 -> 77 ;
78 [label="gini = 0.444\nsamples = 3\nvalue = [2, 1]"] ;
77 -> 78 ;
79 [label="gini = 0.0\nsamples = 2\nvalue = [2, 0]"] ;
77 -> 79 ;
80 [label="gini = 0.5\nsamples = 2\nvalue = [1, 1]"] ;
74 -> 80 ;
81 [label="gini = 0.0\nsamples = 11\nvalue = [11, 0]"] ;
73 -> 81 ;
82 [label="gini = 0.0\nsamples = 1\nvalue = [0, 1]"] ;
72 -> 82 ;
83 [label="Age <= 13.0\ngini = 0.204\nsamples = 433\nvalue = [383, 50]"] ;
15 -> 83 ;
84 [label="Age <= 11.5\ngini = 0.444\nsamples = 12\nvalue = [8, 4]"] ;
83 -> 84 ;
85 [label="Pclass <= 2.5\ngini = 0.397\nsamples = 11\nvalue = [8, 3]"] ;
84 -> 85 ;
86 [label="gini = 0.0\nsamples = 1\nvalue = [0, 1]"] ;
85 -> 86 ;
87 [label="Age <= 8.5\ngini = 0.32\nsamples = 10\nvalue = [8, 2]"] ;
85 -> 87 ;
88 [label="gini = 0.0\nsamples = 3\nvalue = [3, 0]"] ;
87 -> 88 ;
89 [label="Age <= 9.5\ngini = 0.408\nsamples = 7\nvalue = [5, 2]"] ;
87 -> 89 ;
90 [label="gini = 0.5\nsamples = 4\nvalue = [2, 2]"] ;
89 -> 90 ;
91 [label="gini = 0.0\nsamples = 3\nvalue = [3, 0]"] ;
89 -> 91 ;
92 [label="gini = 0.0\nsamples = 1\nvalue = [0, 1]"] ;
84 -> 92 ;
93 [label="Age <= 32.25\ngini = 0.195\nsamples = 421\nvalue = [375, 46]"] ;
83 -> 93 ;
94 [label="Age <= 30.75\ngini = 0.221\nsamples = 316\nvalue = [276, 40]"] ;
93 -> 94 ;
95 [label="Pclass <= 2.5\ngini = 0.193\nsamples = 295\nvalue = [263, 32]"] ;
94 -> 95 ;
96 [label="Age <= 29.35\ngini = 0.109\nsamples = 52\nvalue = [49, 3]"] ;
95 -> 96 ;
97 [label="Age <= 20.0\ngini = 0.051\nsamples = 38\nvalue = [37, 1]"] ;
96 -> 97 ;
98 [label="Age <= 18.5\ngini = 0.18\nsamples = 10\nvalue = [9, 1]"] ;
97 -> 98 ;
99 [label="gini = 0.0\nsamples = 6\nvalue = [6, 0]"] ;
98 -> 99 ;
100 [label="gini = 0.375\nsamples = 4\nvalue = [3, 1]"] ;
98 -> 100 ;
101 [label="gini = 0.0\nsamples = 28\nvalue = [28, 0]"] ;
97 -> 101 ;
102 [label="Age <= 29.85\ngini = 0.245\nsamples = 14\nvalue = [12, 2]"] ;
96 -> 102 ;
103 [label="gini = 0.346\nsamples = 9\nvalue = [7, 2]"] ;
102 -> 103 ;
104 [label="gini = 0.0\nsamples = 5\nvalue = [5, 0]"] ;
102 -> 104 ;
105 [label="Age <= 29.35\ngini = 0.21\nsamples = 243\nvalue = [214, 29]"] ;
95 -> 105 ;
106 [label="Age <= 28.75\ngini = 0.235\nsamples = 140\nvalue = [121, 19]"] ;
105 -> 106 ;
107 [label="Age <= 27.5\ngini = 0.213\nsamples = 132\nvalue = [116, 16]"] ;
106 -> 107 ;
108 [label="Age <= 26.5\ngini = 0.231\nsamples = 120\nvalue = [104, 16]"] ;
107 -> 108 ;
109 [label="Age <= 24.75\ngini = 0.201\nsamples = 115\nvalue = [102, 13]"] ;
108 -> 109 ;
110 [label="Age <= 20.25\ngini = 0.175\nsamples = 93\nvalue = [84, 9]"] ;
109 -> 110 ;
111 [label="Age <= 19.5\ngini = 0.208\nsamples = 51\nvalue = [45, 6]"] ;
110 -> 111 ;
112 [label="Age <= 15.5\ngini = 0.145\nsamples = 38\nvalue = [35, 3]"] ;
111 -> 112 ;
113 [label="gini = 0.0\nsamples = 3\nvalue = [3, 0]"] ;
112 -> 113 ;
114 [label="Age <= 17.5\ngini = 0.157\nsamples = 35\nvalue = [32, 3]"] ;
112 -> 114 ;
115 [label="Age <= 16.5\ngini = 0.124\nsamples = 15\nvalue = [14, 1]"] ;
114 -> 115 ;
116 [label="gini = 0.198\nsamples = 9\nvalue = [8, 1]"] ;
115 -> 116 ;
117 [label="gini = 0.0\nsamples = 6\nvalue = [6, 0]"] ;
115 -> 117 ;
118 [label="Age <= 18.5\ngini = 0.18\nsamples = 20\nvalue = [18, 2]"] ;
114 -> 118 ;
119 [label="gini = 0.219\nsamples = 8\nvalue = [7, 1]"] ;
118 -> 119 ;
120 [label="gini = 0.153\nsamples = 12\nvalue = [11, 1]"] ;
118 -> 120 ;
121 [label="gini = 0.355\nsamples = 13\nvalue = [10, 3]"] ;
111 -> 121 ;
122 [label="Age <= 23.75\ngini = 0.133\nsamples = 42\nvalue = [39, 3]"] ;
110 -> 122 ;
123 [label="Age <= 22.5\ngini = 0.117\nsamples = 32\nvalue = [30, 2]"] ;
122 -> 123 ;
124 [label="Age <= 20.75\ngini = 0.133\nsamples = 28\nvalue = [26, 2]"] ;
123 -> 124 ;
125 [label="gini = 0.0\nsamples = 1\nvalue = [1, 0]"] ;
124 -> 125 ;
126 [label="Age <= 21.5\ngini = 0.137\nsamples = 27\nvalue = [25, 2]"] ;
124 -> 126 ;
127 [label="gini = 0.142\nsamples = 13\nvalue = [12, 1]"] ;
126 -> 127 ;
128 [label="gini = 0.133\nsamples = 14\nvalue = [13, 1]"] ;
126 -> 128 ;
129 [label="gini = 0.0\nsamples = 4\nvalue = [4, 0]"] ;
123 -> 129 ;
130 [label="Age <= 24.25\ngini = 0.18\nsamples = 10\nvalue = [9, 1]"] ;
122 -> 130 ;
131 [label="gini = 0.198\nsamples = 9\nvalue = [8, 1]"] ;
130 -> 131 ;
132 [label="gini = 0.0\nsamples = 1\nvalue = [1, 0]"] ;
130 -> 132 ;
133 [label="Age <= 25.5\ngini = 0.298\nsamples = 22\nvalue = [18, 4]"] ;
109 -> 133 ;
134 [label="gini = 0.298\nsamples = 11\nvalue = [9, 2]"] ;
133 -> 134 ;
135 [label="gini = 0.298\nsamples = 11\nvalue = [9, 2]"] ;
133 -> 135 ;
136 [label="gini = 0.48\nsamples = 5\nvalue = [2, 3]"] ;
108 -> 136 ;
137 [label="gini = 0.0\nsamples = 12\nvalue = [12, 0]"] ;
107 -> 137 ;
138 [label="gini = 0.469\nsamples = 8\nvalue = [5, 3]"] ;
106 -> 138 ;
139 [label="Age <= 30.25\ngini = 0.175\nsamples = 103\nvalue = [93, 10]"] ;
105 -> 139 ;
140 [label="Age <= 29.85\ngini = 0.177\nsamples = 102\nvalue = [92, 10]"] ;
139 -> 140 ;
141 [label="gini = 0.173\nsamples = 94\nvalue = [85, 9]"] ;
140 -> 141 ;
142 [label="gini = 0.219\nsamples = 8\nvalue = [7, 1]"] ;
140 -> 142 ;
143 [label="gini = 0.0\nsamples = 1\nvalue = [1, 0]"] ;
139 -> 143 ;
144 [label="Age <= 31.5\ngini = 0.472\nsamples = 21\nvalue = [13, 8]"] ;
94 -> 144 ;
145 [label="Pclass <= 2.5\ngini = 0.408\nsamples = 7\nvalue = [5, 2]"] ;
144 -> 145 ;
146 [label="gini = 0.375\nsamples = 4\nvalue = [3, 1]"] ;
145 -> 146 ;
147 [label="gini = 0.444\nsamples = 3\nvalue = [2, 1]"] ;
145 -> 147 ;
148 [label="Pclass <= 2.5\ngini = 0.49\nsamples = 14\nvalue = [8, 6]"] ;
144 -> 148 ;
149 [label="gini = 0.444\nsamples = 3\nvalue = [2, 1]"] ;
148 -> 149 ;
150 [label="gini = 0.496\nsamples = 11\nvalue = [6, 5]"] ;
148 -> 150 ;
151 [label="Age <= 38.5\ngini = 0.108\nsamples = 105\nvalue = [99, 6]"] ;
93 -> 151 ;
152 [label="Pclass <= 2.5\ngini = 0.046\nsamples = 42\nvalue = [41, 1]"] ;
151 -> 152 ;
153 [label="Age <= 34.5\ngini = 0.117\nsamples = 16\nvalue = [15, 1]"] ;
152 -> 153 ;
154 [label="Age <= 33.5\ngini = 0.219\nsamples = 8\nvalue = [7, 1]"] ;
153 -> 154 ;
155 [label="gini = 0.0\nsamples = 2\nvalue = [2, 0]"] ;
154 -> 155 ;
156 [label="gini = 0.278\nsamples = 6\nvalue = [5, 1]"] ;
154 -> 156 ;
157 [label="gini = 0.0\nsamples = 8\nvalue = [8, 0]"] ;
153 -> 157 ;
158 [label="gini = 0.0\nsamples = 26\nvalue = [26, 0]"] ;
152 -> 158 ;
159 [label="Age <= 45.25\ngini = 0.146\nsamples = 63\nvalue = [58, 5]"] ;
151 -> 159 ;
160 [label="Age <= 44.5\ngini = 0.219\nsamples = 32\nvalue = [28, 4]"] ;
159 -> 160 ;
161 [label="Age <= 43.5\ngini = 0.18\nsamples = 30\nvalue = [27, 3]"] ;
160 -> 161 ;
162 [label="Pclass <= 2.5\ngini = 0.147\nsamples = 25\nvalue = [23, 2]"] ;
161 -> 162 ;
163 [label="Age <= 40.5\ngini = 0.245\nsamples = 7\nvalue = [6, 1]"] ;
162 -> 163 ;
164 [label="gini = 0.0\nsamples = 3\nvalue = [3, 0]"] ;
163 -> 164 ;
165 [label="Age <= 42.5\ngini = 0.375\nsamples = 4\nvalue = [3, 1]"] ;
163 -> 165 ;
166 [label="gini = 0.444\nsamples = 3\nvalue = [2, 1]"] ;
165 -> 166 ;
167 [label="gini = 0.0\nsamples = 1\nvalue = [1, 0]"] ;
165 -> 167 ;
168 [label="Age <= 39.5\ngini = 0.105\nsamples = 18\nvalue = [17, 1]"] ;
162 -> 168 ;
169 [label="gini = 0.375\nsamples = 4\nvalue = [3, 1]"] ;
168 -> 169 ;
170 [label="gini = 0.0\nsamples = 14\nvalue = [14, 0]"] ;
168 -> 170 ;
171 [label="Pclass <= 2.5\ngini = 0.32\nsamples = 5\nvalue = [4, 1]"] ;
161 -> 171 ;
172 [label="gini = 0.0\nsamples = 1\nvalue = [1, 0]"] ;
171 -> 172 ;
173 [label="gini = 0.375\nsamples = 4\nvalue = [3, 1]"] ;
171 -> 173 ;
174 [label="gini = 0.5\nsamples = 2\nvalue = [1, 1]"] ;
160 -> 174 ;
175 [label="Age <= 61.5\ngini = 0.062\nsamples = 31\nvalue = [30, 1]"] ;
159 -> 175 ;
176 [label="gini = 0.0\nsamples = 25\nvalue = [25, 0]"] ;
175 -> 176 ;
177 [label="Age <= 63.5\ngini = 0.278\nsamples = 6\nvalue = [5, 1]"] ;
175 -> 177 ;
178 [label="gini = 0.0\nsamples = 1\nvalue = [0, 1]"] ;
177 -> 178 ;
179 [label="gini = 0.0\nsamples = 5\nvalue = [5, 0]"] ;
177 -> 179 ;
180 [label="Pclass <= 2.5\ngini = 0.383\nsamples = 314\nvalue = [81, 233]"] ;
0 -> 180 [labeldistance=2.5, labelangle=-45, headlabel="False"] ;
181 [label="Age <= 2.5\ngini = 0.1\nsamples = 170\nvalue = [9, 161]"] ;
180 -> 181 ;
182 [label="Pclass <= 1.5\ngini = 0.5\nsamples = 2\nvalue = [1, 1]"] ;
181 -> 182 ;
183 [label="gini = 0.0\nsamples = 1\nvalue = [1, 0]"] ;
182 -> 183 ;
184 [label="gini = 0.0\nsamples = 1\nvalue = [0, 1]"] ;
182 -> 184 ;
185 [label="Pclass <= 1.5\ngini = 0.091\nsamples = 168\nvalue = [8, 160]"] ;
181 -> 185 ;
186 [label="Age <= 49.5\ngini = 0.042\nsamples = 93\nvalue = [2, 91]"] ;
185 -> 186 ;
187 [label="Age <= 25.5\ngini = 0.025\nsamples = 78\nvalue = [1, 77]"] ;
186 -> 187 ;
188 [label="Age <= 24.5\ngini = 0.071\nsamples = 27\nvalue = [1, 26]"] ;
187 -> 188 ;
189 [label="gini = 0.0\nsamples = 26\nvalue = [0, 26]"] ;
188 -> 189 ;
190 [label="gini = 0.0\nsamples = 1\nvalue = [1, 0]"] ;
188 -> 190 ;
191 [label="gini = 0.0\nsamples = 51\nvalue = [0, 51]"] ;
187 -> 191 ;
192 [label="Age <= 50.5\ngini = 0.124\nsamples = 15\nvalue = [1, 14]"] ;
186 -> 192 ;
193 [label="gini = 0.5\nsamples = 2\nvalue = [1, 1]"] ;
192 -> 193 ;
194 [label="gini = 0.0\nsamples = 13\nvalue = [0, 13]"] ;
192 -> 194 ;
195 [label="Age <= 56.0\ngini = 0.147\nsamples = 75\nvalue = [6, 69]"] ;
185 -> 195 ;
196 [label="Age <= 23.5\ngini = 0.126\nsamples = 74\nvalue = [5, 69]"] ;
195 -> 196 ;
197 [label="gini = 0.0\nsamples = 19\nvalue = [0, 19]"] ;
196 -> 197 ;
198 [label="Age <= 27.5\ngini = 0.165\nsamples = 55\nvalue = [5, 50]"] ;
196 -> 198 ;
199 [label="Age <= 25.5\ngini = 0.355\nsamples = 13\nvalue = [3, 10]"] ;
198 -> 199 ;
200 [label="Age <= 24.5\ngini = 0.198\nsamples = 9\nvalue = [1, 8]"] ;
199 -> 200 ;
201 [label="gini = 0.245\nsamples = 7\nvalue = [1, 6]"] ;
200 -> 201 ;
202 [label="gini = 0.0\nsamples = 2\nvalue = [0, 2]"] ;
200 -> 202 ;
203 [label="Age <= 26.5\ngini = 0.5\nsamples = 4\nvalue = [2, 2]"] ;
199 -> 203 ;
204 [label="gini = 0.0\nsamples = 1\nvalue = [1, 0]"] ;
203 -> 204 ;
205 [label="gini = 0.444\nsamples = 3\nvalue = [1, 2]"] ;
203 -> 205 ;
206 [label="Age <= 37.0\ngini = 0.091\nsamples = 42\nvalue = [2, 40]"] ;
198 -> 206 ;
207 [label="gini = 0.0\nsamples = 26\nvalue = [0, 26]"] ;
206 -> 207 ;
208 [label="Age <= 39.0\ngini = 0.219\nsamples = 16\nvalue = [2, 14]"] ;
206 -> 208 ;
209 [label="gini = 0.0\nsamples = 1\nvalue = [1, 0]"] ;
208 -> 209 ;
210 [label="Age <= 44.5\ngini = 0.124\nsamples = 15\nvalue = [1, 14]"] ;
208 -> 210 ;
211 [label="Age <= 43.0\ngini = 0.245\nsamples = 7\nvalue = [1, 6]"] ;
210 -> 211 ;
212 [label="gini = 0.0\nsamples = 6\nvalue = [0, 6]"] ;
211 -> 212 ;
213 [label="gini = 0.0\nsamples = 1\nvalue = [1, 0]"] ;
211 -> 213 ;
214 [label="gini = 0.0\nsamples = 8\nvalue = [0, 8]"] ;
210 -> 214 ;
215 [label="gini = 0.0\nsamples = 1\nvalue = [1, 0]"] ;
195 -> 215 ;
216 [label="Age <= 38.5\ngini = 0.5\nsamples = 144\nvalue = [72, 72]"] ;
180 -> 216 ;
217 [label="Age <= 1.5\ngini = 0.497\nsamples = 132\nvalue = [61, 71]"] ;
216 -> 217 ;
218 [label="gini = 0.0\nsamples = 4\nvalue = [0, 4]"] ;
217 -> 218 ;
219 [label="Age <= 3.5\ngini = 0.499\nsamples = 128\nvalue = [61, 67]"] ;
217 -> 219 ;
220 [label="Age <= 2.5\ngini = 0.32\nsamples = 5\nvalue = [4, 1]"] ;
219 -> 220 ;
221 [label="gini = 0.375\nsamples = 4\nvalue = [3, 1]"] ;
220 -> 221 ;
222 [label="gini = 0.0\nsamples = 1\nvalue = [1, 0]"] ;
220 -> 222 ;
223 [label="Age <= 5.5\ngini = 0.497\nsamples = 123\nvalue = [57, 66]"] ;
219 -> 223 ;
224 [label="gini = 0.0\nsamples = 6\nvalue = [0, 6]"] ;
223 -> 224 ;
225 [label="Age <= 12.0\ngini = 0.5\nsamples = 117\nvalue = [57, 60]"] ;
223 -> 225 ;
226 [label="gini = 0.0\nsamples = 8\nvalue = [8, 0]"] ;
225 -> 226 ;
227 [label="Age <= 32.5\ngini = 0.495\nsamples = 109\nvalue = [49, 60]"] ;
225 -> 227 ;
228 [label="Age <= 29.85\ngini = 0.497\nsamples = 104\nvalue = [48, 56]"] ;
227 -> 228 ;
229 [label="Age <= 16.5\ngini = 0.493\nsamples = 95\nvalue = [42, 53]"] ;
228 -> 229 ;
230 [label="Age <= 14.75\ngini = 0.42\nsamples = 10\nvalue = [3, 7]"] ;
229 -> 230 ;
231 [label="Age <= 13.5\ngini = 0.5\nsamples = 4\nvalue = [2, 2]"] ;
230 -> 231 ;
232 [label="gini = 0.0\nsamples = 1\nvalue = [0, 1]"] ;
231 -> 232 ;
233 [label="Age <= 14.25\ngini = 0.444\nsamples = 3\nvalue = [2, 1]"] ;
231 -> 233 ;
234 [label="gini = 0.5\nsamples = 2\nvalue = [1, 1]"] ;
233 -> 234 ;
235 [label="gini = 0.0\nsamples = 1\nvalue = [1, 0]"] ;
233 -> 235 ;
236 [label="Age <= 15.5\ngini = 0.278\nsamples = 6\nvalue = [1, 5]"] ;
230 -> 236 ;
237 [label="gini = 0.0\nsamples = 3\nvalue = [0, 3]"] ;
236 -> 237 ;
238 [label="gini = 0.444\nsamples = 3\nvalue = [1, 2]"] ;
236 -> 238 ;
239 [label="Age <= 21.5\ngini = 0.497\nsamples = 85\nvalue = [39, 46]"] ;
229 -> 239 ;
240 [label="Age <= 19.5\ngini = 0.475\nsamples = 18\nvalue = [11, 7]"] ;
239 -> 240 ;
241 [label="Age <= 18.5\ngini = 0.5\nsamples = 12\nvalue = [6, 6]"] ;
240 -> 241 ;
242 [label="Age <= 17.5\ngini = 0.48\nsamples = 10\nvalue = [6, 4]"] ;
241 -> 242 ;
243 [label="gini = 0.5\nsamples = 2\nvalue = [1, 1]"] ;
242 -> 243 ;
244 [label="gini = 0.469\nsamples = 8\nvalue = [5, 3]"] ;
242 -> 244 ;
245 [label="gini = 0.0\nsamples = 2\nvalue = [0, 2]"] ;
241 -> 245 ;
246 [label="Age <= 20.5\ngini = 0.278\nsamples = 6\nvalue = [5, 1]"] ;
240 -> 246 ;
247 [label="gini = 0.0\nsamples = 2\nvalue = [2, 0]"] ;
246 -> 247 ;
248 [label="gini = 0.375\nsamples = 4\nvalue = [3, 1]"] ;
246 -> 248 ;
249 [label="Age <= 27.5\ngini = 0.487\nsamples = 67\nvalue = [28, 39]"] ;
239 -> 249 ;
250 [label="Age <= 26.5\ngini = 0.455\nsamples = 20\nvalue = [7, 13]"] ;
249 -> 250 ;
251 [label="Age <= 24.5\ngini = 0.484\nsamples = 17\nvalue = [7, 10]"] ;
250 -> 251 ;
252 [label="Age <= 23.5\ngini = 0.444\nsamples = 12\nvalue = [4, 8]"] ;
251 -> 252 ;
253 [label="Age <= 22.5\ngini = 0.469\nsamples = 8\nvalue = [3, 5]"] ;
252 -> 253 ;
254 [label="gini = 0.444\nsamples = 6\nvalue = [2, 4]"] ;
253 -> 254 ;
255 [label="gini = 0.5\nsamples = 2\nvalue = [1, 1]"] ;
253 -> 255 ;
256 [label="gini = 0.375\nsamples = 4\nvalue = [1, 3]"] ;
252 -> 256 ;
257 [label="Age <= 25.5\ngini = 0.48\nsamples = 5\nvalue = [3, 2]"] ;
251 -> 257 ;
258 [label="gini = 0.0\nsamples = 2\nvalue = [2, 0]"] ;
257 -> 258 ;
259 [label="gini = 0.444\nsamples = 3\nvalue = [1, 2]"] ;
257 -> 259 ;
260 [label="gini = 0.0\nsamples = 3\nvalue = [0, 3]"] ;
250 -> 260 ;
261 [label="Age <= 29.35\ngini = 0.494\nsamples = 47\nvalue = [21, 26]"] ;
249 -> 261 ;
262 [label="Age <= 28.5\ngini = 0.32\nsamples = 5\nvalue = [4, 1]"] ;
261 -> 262 ;
263 [label="gini = 0.0\nsamples = 2\nvalue = [2, 0]"] ;
262 -> 263 ;
264 [label="gini = 0.444\nsamples = 3\nvalue = [2, 1]"] ;
262 -> 264 ;
265 [label="gini = 0.482\nsamples = 42\nvalue = [17, 25]"] ;
261 -> 265 ;
266 [label="Age <= 31.5\ngini = 0.444\nsamples = 9\nvalue = [6, 3]"] ;
228 -> 266 ;
267 [label="Age <= 30.75\ngini = 0.469\nsamples = 8\nvalue = [5, 3]"] ;
266 -> 267 ;
268 [label="Age <= 30.25\ngini = 0.375\nsamples = 4\nvalue = [3, 1]"] ;
267 -> 268 ;
269 [label="gini = 0.444\nsamples = 3\nvalue = [2, 1]"] ;
268 -> 269 ;
270 [label="gini = 0.0\nsamples = 1\nvalue = [1, 0]"] ;
268 -> 270 ;
271 [label="gini = 0.5\nsamples = 4\nvalue = [2, 2]"] ;
267 -> 271 ;
272 [label="gini = 0.0\nsamples = 1\nvalue = [1, 0]"] ;
266 -> 272 ;
273 [label="Age <= 36.5\ngini = 0.32\nsamples = 5\nvalue = [1, 4]"] ;
227 -> 273 ;
274 [label="gini = 0.0\nsamples = 3\nvalue = [0, 3]"] ;
273 -> 274 ;
275 [label="Age <= 37.5\ngini = 0.5\nsamples = 2\nvalue = [1, 1]"] ;
273 -> 275 ;
276 [label="gini = 0.0\nsamples = 1\nvalue = [1, 0]"] ;
275 -> 276 ;
277 [label="gini = 0.0\nsamples = 1\nvalue = [0, 1]"] ;
275 -> 277 ;
278 [label="Age <= 55.5\ngini = 0.153\nsamples = 12\nvalue = [11, 1]"] ;
216 -> 278 ;
279 [label="gini = 0.0\nsamples = 11\nvalue = [11, 0]"] ;
278 -> 279 ;
280 [label="gini = 0.0\nsamples = 1\nvalue = [0, 1]"] ;
278 -> 280 ;
}